{
  "input_nodes": 5,
  "hidden_nodes": 8,
  "output_nodes": 2,
  "weights_ih": {
    "rows": 8,
    "cols": 5,
    "data": [
      [
        -0.6472091282627377,
        -0.48300082378267417,
        1.1036691117964557,
        -0.24192084237149175,
        -0.18511396965331084
      ],
      [
        0.9836671665522435,
        -0.4732977406064447,
        0.40540902796574885,
        -0.2679685519922741,
        -0.5632648320299916
      ],
      [
        -0.4802536179714286,
        0.3965684186590446,
        0.8763850894553952,
        -0.47276368063109064,
        0.5495439524161316
      ],
      [
        0.8999829147700037,
        -0.8653439341031881,
        0.4752229579705842,
        -1.1452937455679306,
        0.0196695530304294
      ],
      [
        -0.4311109753265202,
        0.8502317407413054,
        -0.24000534672001317,
        -0.8342992824078206,
        -0.6945546122045648
      ],
      [
        0.47592175661865677,
        0.5780829839485226,
        0.5900018552769771,
        -0.8812433002888698,
        -0.5698233128131
      ],
      [
        0.5609211651443978,
        -0.7821498006988445,
        -0.42015161610996343,
        0.7888542825878093,
        0.2635869384961804
      ],
      [
        -0.19709375653971312,
        0.10196838826259744,
        -0.37539821982839783,
        -0.3617693164972198,
        -0.942513396775454
      ]
    ]
  },
  "weights_ho": {
    "rows": 2,
    "cols": 8,
    "data": [
      [
        0.13462022688277833,
        1.3189098856875343,
        0.1472188235291877,
        -0.06208628123556437,
        -0.01968805822058147,
        0.8349226457543555,
        0.3733450051996746,
        -0.44533455812990647
      ],
      [
        0.48557198784990513,
        0.09618313460854304,
        -0.4364313964247508,
        0.18809548358425726,
        0.577471986379938,
        -0.21087136621464614,
        0.36386121146674666,
        0.6919850930884297
      ]
    ]
  },
  "bias_h": {
    "rows": 8,
    "cols": 1,
    "data": [
      [
        -0.20425593615989554
      ],
      [
        -0.3009369631439131
      ],
      [
        -0.3855084325149926
      ],
      [
        -0.5480200630968002
      ],
      [
        0.2311404294322566
      ],
      [
        0.3579653376384272
      ],
      [
        0.9697241922057775
      ],
      [
        -0.08469980265273985
      ]
    ]
  },
  "bias_o": {
    "rows": 2,
    "cols": 1,
    "data": [
      [
        -0.06311176781506717
      ],
      [
        0.6576477151943152
      ]
    ]
  },
  "learning_rate": 0.1,
  "activation_function": {}
}